digraph Tree {
node [shape=box] ;
0 [label="X[2] <= 5.5\nentropy = 1.585\nsamples = 120\nvalue = [39, 41, 40]"] ;
1 [label="X[0] <= 1.5\nentropy = 1.493\nsamples = 63\nvalue = [27, 11, 25]"] ;
0 -> 1 [labeldistance=2.5, labelangle=45, headlabel="True"] ;
3 [label="X[4] <= 16.0\nentropy = 0.906\nsamples = 15\nvalue = [2, 1, 12]"] ;
1 -> 3 ;
9 [label="X[3] <= 1.5\nentropy = 1.0\nsamples = 2\nvalue = [1, 1, 0]"] ;
3 -> 9 ;
39 [label="entropy = 0.0\nsamples = 1\nvalue = [1, 0, 0]"] ;
9 -> 39 ;
40 [label="entropy = 0.0\nsamples = 1\nvalue = [0, 1, 0]"] ;
9 -> 40 ;
10 [label="entropy = 0.391\nsamples = 13\nvalue = [1, 0, 12]"] ;
3 -> 10 ;
4 [label="X[3] <= 1.5\nentropy = 1.472\nsamples = 48\nvalue = [25, 10, 13]"] ;
1 -> 4 ;
5 [label="X[4] <= 10.5\nentropy = 0.954\nsamples = 8\nvalue = [0, 3, 5]"] ;
4 -> 5 ;
31 [label="entropy = 0.0\nsamples = 2\nvalue = [0, 2, 0]"] ;
5 -> 31 ;
32 [label="entropy = 0.65\nsamples = 6\nvalue = [0, 1, 5]"] ;
5 -> 32 ;
6 [label="X[1] <= 21.5\nentropy = 1.328\nsamples = 40\nvalue = [25, 7, 8]"] ;
4 -> 6 ;
19 [label="X[1] <= 8.5\nentropy = 1.238\nsamples = 31\nvalue = [20, 3, 8]"] ;
6 -> 19 ;
21 [label="X[4] <= 25.0\nentropy = 0.811\nsamples = 8\nvalue = [6, 2, 0]"] ;
19 -> 21 ;
23 [label="entropy = 0.0\nsamples = 2\nvalue = [0, 2, 0]"] ;
21 -> 23 ;
24 [label="entropy = 0.0\nsamples = 6\nvalue = [6, 0, 0]"] ;
21 -> 24 ;
22 [label="X[1] <= 9.5\nentropy = 1.163\nsamples = 23\nvalue = [14, 1, 8]"] ;
19 -> 22 ;
25 [label="entropy = 0.0\nsamples = 3\nvalue = [0, 0, 3]"] ;
22 -> 25 ;
26 [label="X[4] <= 26.0\nentropy = 1.076\nsamples = 20\nvalue = [14, 1, 5]"] ;
22 -> 26 ;
27 [label="entropy = 0.592\nsamples = 7\nvalue = [6, 1, 0]"] ;
26 -> 27 ;
28 [label="entropy = 0.961\nsamples = 13\nvalue = [8, 0, 5]"] ;
26 -> 28 ;
20 [label="entropy = 0.991\nsamples = 9\nvalue = [5, 4, 0]"] ;
6 -> 20 ;
2 [label="X[1] <= 19.0\nentropy = 1.467\nsamples = 57\nvalue = [12, 30, 15]"] ;
0 -> 2 [labeldistance=2.5, labelangle=-45, headlabel="False"] ;
7 [label="X[2] <= 16.5\nentropy = 1.531\nsamples = 50\nvalue = [12, 23, 15]"] ;
2 -> 7 ;
11 [label="X[4] <= 20.5\nentropy = 1.495\nsamples = 32\nvalue = [11, 15, 6]"] ;
7 -> 11 ;
13 [label="entropy = 0.918\nsamples = 9\nvalue = [0, 6, 3]"] ;
11 -> 13 ;
14 [label="X[4] <= 51.5\nentropy = 1.422\nsamples = 23\nvalue = [11, 9, 3]"] ;
11 -> 14 ;
15 [label="X[2] <= 12.0\nentropy = 1.222\nsamples = 21\nvalue = [11, 9, 1]"] ;
14 -> 15 ;
33 [label="entropy = 0.845\nsamples = 11\nvalue = [8, 3, 0]"] ;
15 -> 33 ;
34 [label="X[4] <= 21.5\nentropy = 1.295\nsamples = 10\nvalue = [3, 6, 1]"] ;
15 -> 34 ;
41 [label="entropy = 0.0\nsamples = 1\nvalue = [1, 0, 0]"] ;
34 -> 41 ;
42 [label="entropy = 1.224\nsamples = 9\nvalue = [2, 6, 1]"] ;
34 -> 42 ;
16 [label="entropy = 0.0\nsamples = 2\nvalue = [0, 0, 2]"] ;
14 -> 16 ;
12 [label="X[1] <= 9.5\nentropy = 1.252\nsamples = 18\nvalue = [1, 8, 9]"] ;
7 -> 12 ;
17 [label="X[4] <= 40.5\nentropy = 0.764\nsamples = 9\nvalue = [0, 7, 2]"] ;
12 -> 17 ;
35 [label="X[4] <= 38.0\nentropy = 0.971\nsamples = 5\nvalue = [0, 3, 2]"] ;
17 -> 35 ;
37 [label="entropy = 0.0\nsamples = 3\nvalue = [0, 3, 0]"] ;
35 -> 37 ;
38 [label="entropy = 0.0\nsamples = 2\nvalue = [0, 0, 2]"] ;
35 -> 38 ;
36 [label="entropy = 0.0\nsamples = 4\nvalue = [0, 4, 0]"] ;
17 -> 36 ;
18 [label="X[2] <= 22.5\nentropy = 0.986\nsamples = 9\nvalue = [1, 1, 7]"] ;
12 -> 18 ;
29 [label="entropy = 0.544\nsamples = 8\nvalue = [1, 0, 7]"] ;
18 -> 29 ;
30 [label="entropy = 0.0\nsamples = 1\nvalue = [0, 1, 0]"] ;
18 -> 30 ;
8 [label="entropy = 0.0\nsamples = 7\nvalue = [0, 7, 0]"] ;
2 -> 8 ;
}